digraph Tree {
node [shape=box, style="filled, rounded", color="black", fontname=helvetica] ;
edge [fontname=helvetica] ;
0 [label="petal length (cm) <= 2.45\ngini = 0.67\nsamples = 103\nvalue = [53, 46, 51]\nclass = setosa", fillcolor="#fefcfb"] ;
1 [label="gini = 0.0\nsamples = 36\nvalue = [53, 0, 0]\nclass = setosa", fillcolor="#e58139"] ;
0 -> 1 [labeldistance=2.5, labelangle=45, headlabel="True"] ;
2 [label="petal width (cm) <= 1.75\ngini = 0.5\nsamples = 67\nvalue = [0, 46, 51]\nclass = virginica", fillcolor="#f3ecfc"] ;
0 -> 2 [labeldistance=2.5, labelangle=-45, headlabel="False"] ;
3 [label="sepal length (cm) <= 4.95\ngini = 0.12\nsamples = 34\nvalue = [0, 45, 3]\nclass = versicolor", fillcolor="#46e789"] ;
2 -> 3 ;
4 [label="gini = 0.0\nsamples = 1\nvalue = [0, 0, 1]\nclass = virginica", fillcolor="#8139e5"] ;
3 -> 4 ;
5 [label="sepal length (cm) <= 6.05\ngini = 0.08\nsamples = 33\nvalue = [0, 45, 2]\nclass = versicolor", fillcolor="#42e687"] ;
3 -> 5 ;
6 [label="gini = 0.0\nsamples = 21\nvalue = [0, 30, 0]\nclass = versicolor", fillcolor="#39e581"] ;
5 -> 6 ;
7 [label="petal length (cm) <= 5.05\ngini = 0.21\nsamples = 12\nvalue = [0, 15, 2]\nclass = versicolor", fillcolor="#53e892"] ;
5 -> 7 ;
8 [label="gini = 0.0\nsamples = 10\nvalue = [0, 15, 0]\nclass = versicolor", fillcolor="#39e581"] ;
7 -> 8 ;
9 [label="gini = 0.0\nsamples = 2\nvalue = [0, 0, 2]\nclass = virginica", fillcolor="#8139e5"] ;
7 -> 9 ;
10 [label="sepal length (cm) <= 6.0\ngini = 0.04\nsamples = 33\nvalue = [0, 1, 48]\nclass = virginica", fillcolor="#843de6"] ;
2 -> 10 ;
11 [label="petal length (cm) <= 4.85\ngini = 0.24\nsamples = 6\nvalue = [0, 1, 6]\nclass = virginica", fillcolor="#965ae9"] ;
10 -> 11 ;
12 [label="gini = 0.0\nsamples = 1\nvalue = [0, 1, 0]\nclass = versicolor", fillcolor="#39e581"] ;
11 -> 12 ;
13 [label="gini = 0.0\nsamples = 5\nvalue = [0, 0, 6]\nclass = virginica", fillcolor="#8139e5"] ;
11 -> 13 ;
14 [label="gini = 0.0\nsamples = 27\nvalue = [0, 0, 42]\nclass = virginica", fillcolor="#8139e5"] ;
10 -> 14 ;
}